market 0.039004393 -0.11316897 -0.03765261 -0.034368504 -0.11008227 -0.12319013 -0.09162347 0.08111205 0.03545278 0.04813321 -0.075956896 0.030062068 0.09410985 0.043929584 0.1458455 -0.020762563 0.060185414 -0.1366155 -0.031268183 -0.03381437 -0.07690521 -0.051696148 0.039110493 0.012994656 -0.045974445 -0.06440191 0.03982754 -0.02233169 0.018801803 -0.0471729 -0.02731867 0.0025011376 -0.08622559 -0.045847178 0.099742584 0.022031654 0.058191027 -0.012012079 -0.044342577 0.02889607 0.033967048 0.05405832 0.05074786 -0.027295059 -0.032821603 -0.089546554 -0.10736114 0.07750302 -0.043267667 0.011567506
hotel -0.02782102 -0.012297355 0.09606784 -0.024106555 0.00636594 -0.26917285 0.011290962 0.34501654 -0.027144432 0.11818599 -0.17867827 -0.023694657 0.119292274 -0.01816731 0.040985975 0.10017006 -0.07479141 -0.029491719 -0.13149789 -0.08403351 0.100756 -0.08923895 0.0074849697 -0.014294667 0.13493872 -0.20396818 -0.06558187 0.07968134 0.009018039 -0.16560787 -0.047006 -0.058208138 0.04695368 0.014186323 0.0088747945 -0.0062579606 0.07650048 -0.029434582 0.19567156 0.05117152 0.0704312 -0.06879894 -0.036035463 -0.07797742 -0.02064467 -0.086563356 -0.13226496 0.109825104 -0.07963082 0.019228583
station -0.041464344 -0.015253189 0.043458022 -0.09129603 -0.061699357 -0.12828663 -0.041182168 0.06404567 -0.030613549 0.07430667 -0.010835994 0.083856285 0.083007395 -0.04198505 -0.0348203 0.11321317 -0.08003388 0.00023220977 -0.013008051 0.018796904 0.10861713 -0.09813004 -0.073329635 -0.011301654 0.103481695 0.01209903 -0.020082042 0.04773859 -0.037038185 -0.09841745 -0.060194872 -0.03607886 -0.05468237 0.003116017 -0.0077295243 0.06860314 -0.017357398 0.0065090223 0.046304144 0.060067862 -0.012134428 -0.015796576 0.02399998 -0.03333392 -0.04784002 -0.057272326 -0.07343278 0.035332087 -0.063781895 -0.007970495
church -0.0013288379 -0.041159093 0.15327267 -0.07828504 -0.06797398 -0.03616342 0.075130865 0.24018078 -0.07767224 -0.16883717 -0.040362917 0.05999732 0.10620438 -0.15566932 -0.1124566 0.053252757 -0.10621735 0.06255358 -0.016283063 -0.03549368 -0.04022898 0.028646583 0.017190589 0.0824627 0.018130204 0.07834297 -0.061670274 -0.07986156 -0.09688871 0.0139629785 -0.0751506 -0.1605339 -0.052440356 -0.0544827 -0.052057814 -0.038830083 -0.028947538 0.08471216 0.038078923 0.07908468 -0.11602739 0.05796211 -0.020393861 0.027388508 -0.057219476 -0.07048784 -0.13917711 0.070715845 -0.067576416 -0.018881416
bar -0.042775773 -0.15737174 0.07745944 0.09463191 0.11167169 -0.37320662 0.0658683 0.015026122 -0.061186172 0.12705153 0.10874969 0.096364364 -0.026323378 -0.17430344 -0.048419915 0.17271443 -0.038126532 0.04153215 -0.24906105 -0.14849648 0.1433341 0.016464353 -0.2725789 -0.060145974 0.17506275 -0.17877254 0.12397582 0.01795414 -0.17015654 -0.06477851 -0.029499244 -0.1239222 -0.08819294 0.14677715 0.09055585 0.13647579 0.01562978 0.12918757 0.037800934 0.22417907 -0.046744198 0.02060442 -0.21143265 -0.21867943 -0.07852886 -0.11772716 -0.23040259 0.21321705 -0.11813456 -0.020295218
apartment -0.03417512 -0.013517575 0.06725157 -0.00328972 0.016269706 -0.10732712 0.007275851 0.11339733 0.01388584 0.04204456 -0.08673021 -0.043653343 0.036416654 -0.023037136 0.0030434243 0.052939244 -0.07570588 0.0061992723 -0.033292845 -0.0035255868 0.06221895 -0.022409603 0.03134577 0.051000755 0.08601354 -0.09143885 -0.045147173 0.015587802 -0.029255044 -0.06670806 -0.022872474 -0.09411059 0.02244525 -0.05415671 0.022396633 0.043774217 0.047311 0.05832198 0.13982198 0.009929467 0.034355026 0.009699193 -0.006288133 -0.04398572 -0.012694805 -0.05997728 -0.06237762 0.021843478 -0.052858915 0.0046477523
camera 0.046641793 -0.12530898 0.02253331 0.11279118 0.084663145 -0.16342478 -0.057456322 -0.052267373 -0.052337553 0.11349405 0.028580118 -0.009048325 0.008529042 -0.10513377 0.014908134 0.09845539 -0.047993004 -0.0047058943 0.015927756 0.0006319419 0.17521688 -0.096058205 0.05033883 -0.016256455 0.070717715 -0.07801687 -0.09908014 -0.06637646 -0.011286214 -0.056979794 0.042713284 0.04413663 0.1275578 -0.017492399 -0.03521825 0.07943246 -0.006874736 -0.035676323 0.008423197 0.03674348 -0.09031012 0.041258406 -0.024884118 -0.022343326 -0.018832084 -0.10803699 -0.077773176 0.041967187 -0.045901798 0.02770525
beach -0.04642719 -0.060127705 0.12633634 0.13982515 0.017113846 -0.3147944 0.13890696 0.24150176 -0.016472504 0.061491005 -0.10933467 0.061970323 0.05236689 0.01956689 0.043039348 0.027724516 -0.12995867 0.06366836 -0.040210713 0.03647428 0.09589889 -0.10137466 -0.17449477 0.0020641722 0.062511794 -0.07453001 -0.02353595 0.013122874 0.0029687034 -0.13062161 0.10196084 -0.08828007 0.1527453 -0.07257503 -0.1617595 -0.025991688 0.0017586062 -0.039257724 0.08241017 0.01471745 -0.14127806 -0.08490594 -0.11136535 -0.13037647 -0.032563176 -0.09535122 -0.10173441 0.09899242 -0.056777798 -0.03419441
shopping 0.010636064 -0.042406447 0.0064836363 0.07433969 0.016035177 -0.1194167 -0.025547868 0.13830316 -0.026653232 0.023691325 -0.083859034 -0.03418751 0.034545224 -0.026147284 0.012016291 -0.010801876 0.014297495 -0.0065681087 -0.10593998 -0.043774746 -0.041871205 -0.07229781 -0.023967745 -0.03807316 0.096799396 -0.042436086 -0.002314952 -0.04124586 -0.0093531 -0.045151956 -0.018529186 -0.006934733 0.020326477 -0.0543679 0.041153092 -0.010318944 0.053515244 -0.030906033 0.044558756 -0.06349913 0.007809571 -0.062377997 0.033946868 -0.040480264 -0.012457167 -0.056711353 -0.051219586 0.043146715 -0.040981412 -0.003840634
train 0.0027458444 -0.08541879 0.11090353 -0.015820352 -0.008516178 -0.123278394 -0.021760173 0.1103657 -0.043702073 0.11771869 -0.07720096 0.16475375 0.07305801 -0.04200716 0.045298338 0.07912982 -0.056651548 0.15089172 0.015470631 0.08844632 0.1186518 -0.07509001 0.026366808 0.011884352 0.119220324 -0.0009505339 -0.02994585 -0.023748137 -0.19730814 -0.13487189 -0.10913643 0.03570067 -0.024890307 0.03097133 0.06188579 0.09390771 0.09067726 -0.08099013 0.007828198 -0.042168923 0.109899186 -0.17497382 0.061910704 -0.023947895 -0.029097144 -0.09764403 -0.091037065 0.08292144 -0.07674113 0.023073621
restaurant -0.0128600085 0.011741188 0.044918384 0.0148968585 0.004934796 -0.12940349 0.009614852 0.12492248 -0.02540361 0.026573148 -0.050823405 -0.03343888 0.038393054 -0.0062539196 0.015640331 0.054791037 -0.038827207 -0.04546327 -0.05385949 -0.06501688 -0.004526861 -0.07405921 -0.057225753 -0.031915057 0.05915991 -0.076891184 0.018902821 0.07616736 -0.05522688 -0.041070774 0.005073818 -0.02177667 0.0035023848 0.023937229 0.025983093 0.019753942 0.032174937 0.04277469 0.08315882 0.07425834 0.05604217 0.007811195 -0.00057783764 -0.0527864 -0.025579408 -0.039487354 -0.053772278 0.046002798 -0.036521245 0.006841643
map -0.013345994 -0.16095623 -0.11857873 -0.20225894 -0.2361879 -0.16533816 0.10006174 -0.07384827 -0.1239 0.22632876 -0.017682903 0.16612878 0.26040548 -0.4492628 -0.2964602 -0.27415305 -0.28442183 0.009573913 0.06241697 0.15055758 0.25442624 -0.2544982 -0.24969357 -0.046949815 -0.03879022 -0.058464494 0.06028562 0.025138974 0.106567 -0.04286474 0.028619096 -0.10933082 0.40567815 0.023448162 -0.0038658865 0.043525707 0.07196264 0.09786263 0.34034455 -0.0069097877 0.16911608 0.031656496 0.07254702 0.03594838 -0.02728004 -0.12524952 -0.17769735 0.09691831 -0.11411047 -0.011124473
flight -0.025756517 -0.096353464 0.05753367 -0.06958267 -0.0045334995 -0.09879076 0.0101857195 0.033703044 -0.033293527 0.07880881 -0.0003017947 0.070506774 0.093782894 0.052571703 0.025515193 0.027201181 -0.07027768 0.15281461 -0.015858147 0.05007975 0.14107798 -0.11956797 0.073428355 0.045338027 -0.024660708 -0.066074565 -0.07892413 0.028232649 -0.045687884 -0.07212101 0.043304414 0.16546057 0.055101342 0.029884947 0.017502246 0.09981443 0.019424485 -0.08064162 -0.022734774 -0.016274145 0.017639432 -0.14463477 0.048550725 -0.04144816 -0.030227829 -0.09135648 -0.098361604 0.08002883 -0.027618036 0.00024872125
bus -0.18565868 -0.19298136 0.07264599 -0.16064915 0.03774841 -0.3876427 -0.11493348 0.26562732 -0.23870687 0.19326806 -0.09503441 0.35402444 0.032886162 -0.022097377 -0.07623263 0.2642548 -0.2242774 0.1119522 -0.13642778 0.035138912 0.3929678 -0.28974107 -0.06967911 -0.013745291 0.41888788 -0.037498116 -0.27096906 0.03139797 -0.3812239 -0.106533766 -0.058731023 -0.2637138 -0.07371516 0.028046412 -0.025204308 0.21864814 0.11802519 0.13619113 -0.006913077 0.09779997 0.07667025 0.08279926 0.17070618 -0.17802854 -0.028429978 -0.28617212 -0.24701624 0.13124762 0.01596222 -0.0064089894
island -0.019121064 -0.04007215 0.15778682 -0.059810437 -0.021479214 -0.15527825 0.19180347 0.12649022 -0.05903555 0.045439556 -0.08053805 0.08336409 0.115247205 -0.0005198211 0.057813298 -0.014717096 -0.16715196 -0.02760906 0.0425946 0.06726677 -0.013989012 -0.13467889 -0.08401497 0.027460832 -0.07481323 -0.03651175 0.043500908 0.048894115 0.039605714 -0.11404189 0.11824764 -0.042912003 0.11694807 -0.06780168 -0.05879988 0.025559818 0.02077444 -0.019526124 0.015512392 -0.025967408 -0.062910154 0.031100977 -0.03399027 -0.056099188 -0.07834505 -0.10531143 -0.090302154 0.012216777 -0.080305666 -0.033836044
river -0.036772266 -0.04080207 0.19665335 -0.062323682 0.012852639 -0.16776516 0.26614535 0.13002293 0.11702034 0.028907955 -0.066002086 0.24059297 0.12439989 -0.0142662 -0.038686663 -0.045492068 -0.16441429 0.00840702 -0.02211607 0.11120796 0.06390431 -0.1379287 -0.183467 -0.051632322 -0.10971095 -0.0071060807 0.006293565 0.057716567 0.025143288 -0.11138572 0.10178049 -0.09844079 -0.004257145 0.017492635 -0.115857005 -0.010406766 0.043509446 -0.10776099 0.049433254 -0.055319846 0.023489423 0.04410378 -0.03689046 -0.029388176 -0.040480435 -0.084118925 -0.109241724 0.07946142 -0.03372398 0.008115258
airport -0.052345186 -0.028547272 0.0672998 -0.036986556 -0.043259185 -0.11868495 -0.0854442 0.16216338 -0.06694153 0.09471228 -0.099297695 0.1162498 0.07323833 0.05104781 0.02567947 0.032858297 -0.12538615 0.008585161 -0.040712055 0.008567875 0.13416126 -0.09340511 -0.065879546 0.03110243 0.08009894 -0.09038611 -0.102935456 -0.017917352 -0.018799458 -0.055018287 0.00484668 0.008205544 0.045756757 -0.034386635 -0.03700947 0.085341096 0.0056731286 -0.0093151545 0.07082265 0.01834787 0.08428708 -0.051346265 0.020687543 -0.044206418 -0.036489487 -0.077866055 -0.10724028 0.027933627 -0.03940758 -0.00073334825
mountain -0.01148582 -0.05056518 0.08721376 -0.021975454 0.010755731 -0.114397354 0.14151278 0.053663716 -0.0036017587 -0.004064875 0.002214715 0.053643256 0.065350026 0.0062355953 0.05206937 -0.0083088195 -0.110801965 0.023064721 0.002069799 0.06098347 0.002397367 -0.058360416 -0.045386665 -0.037287787 -0.110679045 -0.015625868 -0.028696243 0.012988338 -0.040917333 -0.06418674 0.04539947 -0.0133218495 0.032439206 0.09265652 -0.11235622 -0.021434704 0.027910307 -0.009438984 0.039707743 -0.06735846 0.04195566 0.04788143 -0.049833994 0.005593399 -0.042603415 -0.051987134 -0.08118501 0.07147708 0.010805284 -0.0027268967
dining -0.044637673 -0.07044309 0.04849238 0.07036722 0.008737052 -0.20323363 0.055657726 0.25434917 0.059096094 0.010176859 -0.06126153 -0.07642796 0.13521674 -0.14274976 0.044915553 0.040141363 -0.00380308 0.012376993 -0.05815616 -0.0720587 -0.0151177915 -0.064442806 -0.11743335 -0.022645772 0.07982864 -0.040160205 -0.058713973 0.07011771 -0.050825268 -0.060401678 0.04060442 -0.058815073 0.0094952155 0.026583588 0.038790725 0.041953232 0.14328802 0.012742917 0.12920192 0.033501383 -0.026189407 -0.11085033 -0.053853232 -0.08053177 -0.016119884 -0.07454844 -0.045708742 0.068035826 -0.09214252 0.029286498
ticket 0.0069522946 -0.076583266 -0.018146973 -0.004706517 -0.0002858877 -0.09354914 -0.10227191 0.14923155 -0.16543058 0.060808003 0.060300212 0.049764972 -0.016719008 -0.050444093 -0.008347496 0.097240195 0.015115701 0.036557514 -0.10427677 -0.09432023 0.043422032 -0.055700015 -0.10006483 0.06185993 0.025297323 -0.099731915 -0.056925673 0.046236467 0.01566242 -0.030951131 -0.078912035 0.018678343 -0.012507251 0.023528758 0.0025642195 0.064419426 0.11527405 -0.12138742 -0.011352134 0.057129104 -0.049492545 -0.06854868 0.057535518 -0.07647701 -0.02622855 -0.06492597 -0.07277542 0.07112219 -0.034269195 0.013995076
port -0.008497288 -0.1613348 -0.06811523 -0.21019523 -0.024968248 -0.27123246 0.060499035 0.002051572 -0.04411891 0.2768168 -0.06582782 0.22578964 0.14883408 -0.05640934 -0.11461204 0.11392768 -0.24484251 -0.08573483 -0.10404065 0.016703662 0.07943471 -0.09135309 0.035669677 0.11827599 -0.028368171 -0.16421078 0.069234565 0.089113705 0.023481777 -0.023936357 0.07957512 -0.111586206 0.071054354 0.050998922 0.109273516 0.29004696 0.015832048 0.06682013 -0.035154 -0.033360668 0.03366085 0.074027315 -0.08543857 0.071656175 -0.05040574 -0.11882381 -0.16986024 0.073209316 -0.037153047 -0.051231246
photography 0.0028786093 -0.018554619 0.01628313 0.040321097 -0.023582479 -0.07126194 0.016131932 0.007025543 -0.027320016 -0.011766619 -0.060921468 -0.07286964 0.04560562 -0.105736636 0.016638665 -0.011371917 0.008686315 0.028139267 0.015845446 -0.011129407 0.041129444 -0.07071185 -0.010917537 -0.04214073 0.003720998 -0.016859747 0.04631116 -0.07481077 0.0041390257 0.0040549748 0.035834536 0.033630975 -0.015170666 -0.03656989 -0.04223312 -0.001894261 0.0044505442 -0.08392425 0.026324192 -0.019065246 -0.039641142 0.0050553116 0.008489733 -0.017526144 -0.02900809 -0.045011736 -0.04601397 0.032954436 -0.021123147 0.00074003043
lake -0.111752614 -0.10409804 0.20340554 -0.030900395 0.014981831 -0.33757913 0.2595801 0.20374236 0.17262274 -0.009898385 -0.075629726 0.20520417 0.1346649 0.01448819 -0.11995696 -0.038390607 -0.2543274 0.07346104 0.026223816 0.14152052 0.062440813 -0.14492652 -0.23888467 -0.07206056 -0.13756335 -0.06864931 -0.1025545 0.07396555 0.073069006 -0.25355 0.14837664 -0.066063285 -0.04806666 0.07282073 -0.18832456 -0.11634998 0.04400246 -0.11545482 0.24813858 -0.037128665 0.0033062517 -0.019656692 -0.045465745 -0.10501241 -0.04772214 -0.11644745 -0.14035437 0.08358882 -0.07088691 -0.02294169
swimming -0.017892834 -0.08076537 0.08690525 0.042447697 0.008643031 -0.12703486 0.050882597 0.033699397 0.0385814 0.0093217185 -0.037313886 0.033613116 0.018807773 0.03662148 0.02137473 0.041241374 -0.005263114 0.11136202 0.010732798 0.05774196 0.041190166 -0.06538529 -0.05975992 -0.015594776 0.0494929 -0.07136139 0.0052339896 -0.017679745 -0.11001565 -0.09378589 0.030562451 0.006012439 0.04756538 -0.029659336 -0.061691463 -0.05821077 0.054127585 -0.05512815 0.04312325 -0.016112462 -0.08858433 -0.055911943 -0.039909482 -0.04233945 -0.006662184 -0.09472387 -0.035475057 0.038340434 -0.022273654 0.0013654147
forest -0.03633895 -0.10467128 0.13254087 -0.025621979 -0.0563627 -0.120344035 0.19367282 0.02894167 0.039315958 0.034417685 -0.10229071 0.099950284 0.07504272 -0.0064944588 0.015803045 -0.009935191 -0.14372103 -0.001911439 0.06711414 0.13168669 -0.009989143 -0.1425277 -0.09447858 -0.03290076 -0.13728587 0.06621943 -0.0047227847 0.03096402 0.064614564 -0.05829035 0.08251317 -0.03627741 0.05801803 0.02515992 -0.038273137 -0.031980217 0.09714165 -0.114884816 0.07949629 0.016626958 -0.00014237613 0.01954385 -0.12775292 -0.049521275 -0.042840537 -0.08610501 -0.124897085 0.11484798 -0.021232704 -0.031547673
museum 0.011090147 0.010461763 0.10711962 -0.072069354 -0.12126505 -0.13400745 0.068183884 0.15178862 -0.09797392 -0.011420234 -0.054224808 -0.023955524 0.1420233 -0.16907726 -0.007420938 0.07230108 -0.10874199 -0.03591075 0.10240819 -0.035654914 0.120846465 -0.09226215 -0.09628161 0.043060284 0.047317117 -0.020717604 0.021572486 -0.092687465 -0.03551251 -0.095474355 -0.11108228 0.09563244 0.055773824 -0.05347692 -0.05916934 -0.10173643 0.081647985 -0.1020419 0.16373213 0.02785704 0.023699518 -0.04187022 0.06043371 -0.010706753 -0.035937455 -0.03929762 -0.110336445 0.056923337 -0.06866943 0.01710987
resort 0.08133628 -0.077819236 0.061549254 -0.009362578 -0.0179068 -0.08591995 -0.0018622015 0.15641245 -0.05657677 0.015724504 -0.08238735 0.047275152 0.13699551 0.045287684 0.06934202 0.0682743 -0.08107042 -0.04234619 -0.10137582 -0.009568133 -0.050759792 -0.044970196 -0.017980749 -0.043765888 0.08460999 -0.08351754 -0.01565002 0.067686394 0.02940963 -0.071877964 0.08768051 -0.008376391 0.07841899 0.014840233 -0.11075673 -0.01124084 0.01546483 -0.053156137 0.06796043 -0.035898473 -0.018999506 -0.11866774 -0.04711746 -0.053196885 -0.036415875 -0.06034546 -0.060530394 0.06330499 -0.07260564 -0.07453762
relaxing 0.005315402 -0.07526839 0.04814477 0.12911567 0.031570956 -0.07538697 0.052796476 0.0964886 0.065558106 0.05107998 -0.109227836 -0.061216526 0.07905689 0.015890568 0.020685205 -0.030240398 0.017316148 0.070254676 -0.06508234 0.028125651 0.0011716714 -0.023147102 0.018282836 -0.0011207504 0.047099244 -0.035941955 -0.026517633 0.061017614 -0.07089701 -0.04530219 0.03336142 -0.003185853 0.025180848 -0.041108474 -0.06587141 0.040458806 -0.0059528607 -0.013476916 0.012284136 -0.050500933 -0.07368785 -0.10815575 -0.028591515 0.008943617 -0.015895657 -0.09189193 -0.004465381 0.032980304 -0.07350396 -0.003695021
temple -0.060540546 -0.10345968 0.111691765 -0.040790666 -0.00600031 -0.047017146 0.2529014 0.064871185 -0.09224277 -0.0032883377 -0.08837807 0.09090169 0.067258224 -0.06700647 -0.018286044 0.091665246 -0.190099 -0.0010882795 -0.022944665 -0.12511642 0.032553468 -0.03859148 0.063903704 -0.13902041 -0.13203359 0.1274343 -0.17100185 0.06474591 0.0025116035 -0.053489726 -0.1384311 -0.07005115 0.02014543 0.028183961 -0.08212805 -0.13004 0.109081164 -0.041904744 0.17495146 0.024320325 -0.08434082 -0.055468407 -0.05417424 -0.06836258 -0.04316493 -0.080444 -0.084301986 0.049799565 -0.051838007 -0.0293479
immigration -0.0053952187 -0.05695147 0.06312945 -0.050652105 -0.06465733 0.07698832 -0.027831549 0.06458012 -0.03494896 -0.09934386 -0.027992373 0.048276868 0.036043316 0.01696039 0.046394378 0.0050888243 -0.021319253 -0.003560713 -0.066089354 -0.008002246 0.04089015 -0.06986007 -0.04791137 0.025810972 -0.028447172 -0.054558862 0.0074807554 -0.0731568 0.013768503 0.046576288 0.05664593 -0.055058815 0.037652414 0.0020243803 -0.018992482 0.042544864 -0.004120802 -0.008342363 -0.015892504 0.014568247 0.0044564246 0.011196366 0.021219874 0.0009334654 -0.031704392 -0.05515634 -0.057239022 0.025685523 -0.018980311 0.010723769
cabin -0.04860408 -0.06998948 0.090990916 0.051149536 0.023906581 -0.29652184 0.043119468 0.1580568 0.09417931 0.049408637 0.04502662 0.031068005 0.14072776 -0.11039646 -0.06890146 0.22050568 -0.15259366 -1.0835007e-05 0.02603205 0.140442 0.08784569 -0.0827657 -0.00090162107 0.015961964 -0.013524986 -0.023703974 -0.20991793 0.06966921 -0.047261663 -0.15420672 0.24870074 0.06206294 -0.0616476 -0.060522284 -0.087367706 0.14417538 0.03058869 0.04383339 0.008925114 -0.1041489 0.024306988 0.0033173785 -0.06319543 -0.0471526 -0.042605326 -0.10669629 -0.1031166 0.08184771 -0.07968646 -0.0136727635
terminal -0.026955338 -0.09447447 -0.0133289285 -0.088950545 -0.025903152 -0.10081414 -0.0407889 -0.0573103 0.028604036 0.048038337 -0.021549968 0.045322396 0.06328705 0.01947858 -0.058262367 0.07221621 -0.053975895 0.008673051 0.016015647 0.0019331874 0.092127845 -0.03809492 -0.036310595 0.017516732 0.05642591 -0.04719932 -0.05978483 0.020801106 0.022836572 -0.037481833 -0.02121449 -0.06619276 0.002912828 -0.0007232625 0.041164257 0.09514347 0.06466747 0.024145376 -0.012768342 0.019669522 0.04340494 0.03987465 0.028892806 0.03723312 -0.050068494 -0.09505836 -0.036800556 0.025138078 -0.029540213 -0.028220825
cruise 0.0032609464 -0.06536295 0.0124041615 0.045037404 -0.004564372 -0.2150259 -0.0213064 0.15973589 -0.08029347 0.039767426 0.004627204 0.011644748 0.10227747 0.0283365 0.06035868 0.051465165 -0.039905436 0.060807556 -0.059432305 0.00959025 0.052537795 -0.06977947 0.015342913 0.08032156 0.028268863 -0.11419312 -0.03359386 0.03544354 0.023963595 -0.16612156 0.17043202 0.0546628 -0.031940043 0.047317456 -0.046997022 0.049006265 -0.061211865 -0.12718825 -0.103167884 -0.09035265 0.048237905 -0.16226971 0.0066959313 0.041428823 -0.04019795 -0.12752986 -0.1009475 0.09526252 -0.015806548 -0.026111245
castle -0.08069521 -0.04085894 0.18736961 -0.022454081 0.001878938 -0.122880176 0.28022012 0.13289104 -0.10568503 0.09291482 0.03348548 0.090319745 0.05066773 -0.18277664 -0.0577753 0.07258396 -0.11313625 0.0020081953 -0.038829792 0.10136731 0.031025246 -0.020565225 0.07823706 0.15207805 0.008787773 -0.030340582 0.10700935 0.014612213 0.014653036 -0.0825722 -0.022971405 -0.02146887 0.06658126 -0.0026613777 0.05938684 -0.11875925 0.19660255 0.07200817 0.20166734 0.041801326 0.0059177848 -0.0108800335 -0.0030238763 -0.0390927 -0.04870963 -0.06606515 -0.11269981 0.06216923 -0.048142996 -0.017302252
hiking -0.09632989 -0.12650257 0.07589 0.056264676 0.027594391 -0.16893022 0.043672677 0.12013878 0.045753192 -0.03656545 -0.034364637 -0.03970469 0.04236444 -0.0077150287 0.002625382 -0.013997192 -0.1150461 0.074770615 -0.0041280496 0.06550127 -0.021949124 -0.15151696 -0.04704897 -0.022156786 -0.042643923 -0.07587433 -0.012832549 0.015960691 -0.17237046 -0.07556091 0.10191494 0.05252379 0.068628035 0.0031967189 -0.15861987 -0.0029114098 0.013145058 -0.105551384 -0.013915787 -0.14705706 -0.041501973 -0.02770154 -0.06801537 -0.05970594 -0.0070058526 -0.09943504 -0.062080223 0.05698026 -0.037951764 -0.010093848
desert 0.024397722 -0.08860495 0.16694365 0.07180212 -0.0016077623 -0.1386822 0.20483339 0.08479621 -0.04166679 -0.025155878 -0.0058219726 0.07851632 0.1360909 0.09189212 0.04968337 -0.068061285 -0.1904163 -0.030823136 0.10454861 0.062693566 0.030996481 -0.07995005 -0.039621558 -0.054733973 -0.13949679 0.029867416 -0.015285435 0.019730521 0.0020576497 -0.13922147 0.056669112 -0.006031003 0.031923767 -0.012551415 -0.15776305 0.12626809 -0.0054868124 -0.05184106 0.055333745 -0.0480415 0.10052454 -0.057006117 -0.0900382 0.09652094 -0.037406173 -0.09963342 -0.05725002 0.059257675 -0.033982288 -0.009804258
climbing 0.016999608 -0.06799066 0.04793416 0.036558203 0.031045297 -0.10082088 0.04341931 0.020691535 0.030487122 0.02479945 0.028448474 0.056303285 0.00618251 0.015099043 0.07056473 0.023353107 -0.004082542 0.07186893 -0.0061980276 0.07789973 0.04432597 -0.096444674 0.0023008087 -0.04103261 -0.044323023 -0.04844039 -0.010306731 -0.04466834 -0.108094886 -0.022998117 0.04151928 0.016387329 0.0077156727 0.029174069 -0.060764078 -0.075421266 0.029930765 -0.030239316 -0.0069121756 -0.0067878016 0.032146316 -0.039178032 -0.048749533 -0.0051431376 -0.015349965 -0.08871202 -0.061907806 0.058517475 -0.01050195 -0.042728737
mall -0.0024568886 -0.03849829 0.119605646 0.1111982 -0.008325118 -0.32699805 -0.063201755 0.32630688 -0.1851974 0.04033875 -0.08859873 0.14850925 0.15548214 0.06033502 -0.00048470497 0.041656848 -0.3011998 -0.03393069 -0.089276046 -0.106513366 0.12132524 -0.09910914 -0.096503906 -0.25517946 0.24013203 -0.109031975 -0.15385222 -0.08438878 0.116716236 -0.14072816 -0.10746922 -0.16758129 0.036430657 -0.042199664 0.15502927 -0.19707999 0.1416278 0.07784415 0.17693564 -0.029468847 0.065840304 -0.15475744 0.06751242 -0.16432483 -0.08694181 -0.112097815 -0.19409446 0.11545032 -0.09425479 0.0016281357
camping -0.013010083 -0.07620583 0.050641708 0.09338814 0.0028004237 -0.19777547 0.024984 0.15249598 -0.019094532 -0.03890545 -0.0151693225 0.061742492 0.03996543 -0.0260454 -0.025324568 0.070063815 -0.060326412 0.021040719 0.012941375 0.08811053 -0.013592415 -0.10327988 -0.07403953 -0.049583524 0.021051846 -0.008813671 0.030785194 0.049158912 -0.09467557 -0.056304045 0.04389667 0.04092848 -0.0038029924 -0.06461105 -0.1503384 0.05811669 -0.033474695 -0.006600169 0.015672352 -0.14719471 -0.04492767 -0.06805357 0.0068338616 -0.098429464 -0.023566864 -0.08186891 -0.065453544 0.063964725 -0.04349214 -0.015692743
taxi -0.11671835 -0.12444182 0.1844886 -0.012654817 0.07141595 -0.21670525 0.011152755 0.25027207 -0.2304497 0.20818615 -0.26222217 0.18099806 -0.040167626 0.04909318 0.12201496 0.3471782 -0.06149017 -0.024695372 -0.17855375 0.04598441 0.15923636 -0.25806165 -0.04172357 -0.0035012912 0.13885048 -0.25527793 -0.20224302 0.0076831533 -0.10006061 -0.12577242 -0.01472356 -0.07039319 0.016005484 -0.007518016 0.019721191 0.21763495 0.0244199 -0.075799294 -0.008759434 0.06938174 0.08549619 -0.073676646 -0.000176354 -0.083162606 -0.0034775957 -0.20621356 -0.17474762 0.16850327 0.020380579 -0.008199826
bicycle -0.014427486 -0.06863448 0.06493245 0.011738713 -0.02759076 -0.15072429 0.03289081 0.0483855 0.025162471 0.0124411415 -0.029559275 -0.021128295 0.031608596 -0.039560877 0.043612286 0.1258021 -0.045334727 -0.010470784 -0.024106499 0.033722248 0.105521485 -0.05449627 -0.04535073 -0.031822063 0.03455857 -0.085917495 0.005387764 -0.07140624 -0.19780289 -0.07106382 -0.012486888 0.082374945 0.021386836 -0.03775676 -0.04510465 -0.04581973 0.083805874 -0.028903257 -0.032077715 -0.027037181 0.019604988 0.06657449 0.054840036 -0.08290672 -0.028327174 -0.11377598 -0.054824706 0.06399816 -0.04019333 -0.0016909242
touring 0.012523632 0.0016748043 0.06380732 0.009437024 -0.044029236 -0.10378945 0.03141029 0.11545837 -0.051134877 0.059085272 0.03495627 0.0060667135 0.11665484 -0.026615953 0.10073986 0.04254944 0.025157422 0.09429106 0.052224424 0.006287224 0.008053925 -0.07495665 0.05108817 -0.035982862 0.062389165 -0.06189952 0.044367433 -0.04126831 -0.053910427 -0.057133924 0.03701804 0.008904511 -0.12903035 0.022390679 -0.14020404 0.011654316 -0.045828313 -0.011455663 -0.07937935 -0.055169508 0.037192952 -0.043822136 0.027707037 0.07092303 -0.025864217 -0.060014293 -0.05304408 0.05462455 -0.027664026 -0.049095806
visa -0.18342057 -0.26851112 0.01875877 -0.16002277 -0.060515933 0.06140291 -0.25154334 0.111749634 -0.27528822 -0.03640203 -0.47294873 0.16500187 -0.034434386 0.10908958 0.036277223 0.25375867 0.05236008 0.12352079 -0.19259076 -0.13603598 0.12673888 -0.059367515 -0.17134354 0.08064745 -0.12307345 -0.25684106 0.011966474 -0.06852925 0.14559233 -0.017286543 0.039847087 0.047133427 0.13889343 -0.048754416 0.0042483783 0.2523581 0.1321656 -0.21578114 -0.11130881 -0.23283307 0.0050163097 -0.047837522 0.0950371 -0.029926557 -0.12428425 -0.1582021 -0.20839795 0.20663294 0.063313 -0.0498978
diving 0.018431915 -0.0822616 0.08217015 0.038534753 -0.01583201 -0.10474477 -0.00011221096 -0.015744513 0.01313855 0.0851148 0.041735798 0.039355684 0.022209127 0.0021863342 0.07991649 0.039261788 -0.0026235566 0.13579875 -0.0062547037 0.09252675 0.104687445 -0.09002619 -0.052482434 0.0031215444 -0.014256618 -0.033326156 0.1033868 -0.03261986 -0.12885305 -0.011847756 0.043568905 0.10748749 0.053023357 -0.00726276 -0.10811537 -0.033868432 0.010637422 -0.20281482 0.029022813 -0.011806607 -0.102095604 -0.056512903 -0.16305159 -0.05649705 -0.03556237 -0.10123743 -0.05727411 0.09618117 0.0007310927 -0.053095687
customs 0.021538913 -0.08352652 0.07410142 -0.0021216522 -0.12228052 0.008338697 0.0819688 0.108231924 -0.06641417 -0.04431584 -0.14059545 0.09313794 0.0012512704 -0.056413203 0.040663227 0.054702293 -0.050895866 -0.07218164 0.00038150357 -0.0648742 0.0018391225 0.040515043 0.010688069 -0.013587318 0.011421492 -0.023722058 0.018599166 0.01852845 0.0016906064 0.062275182 0.034305386 0.039542627 0.07375915 -0.107514605 -0.05343772 0.10527631 0.031150594 -0.115637444 -0.075763226 -0.010736844 0.07078065 -0.004123395 -0.023883035 -0.06922962 -0.029513508 -0.06842084 -0.09223618 0.06156121 -0.028459404 0.003134211
luggage -0.035737596 -0.10785957 0.05792109 0.08155607 0.015108338 -0.15082052 0.0358551 0.08311507 -0.002165515 0.10055789 -0.07871891 0.038038068 -0.06945831 -0.01598856 0.05558763 0.13362089 -0.039446875 -0.04038123 -0.03095327 -0.0638603 0.13938212 -0.0121889105 0.025957033 0.08165513 0.11083931 -0.10220265 -0.08667055 -0.030748561 -0.06327341 -0.009295422 0.04027105 0.08242084 0.058778252 -0.07808152 -0.020212784 0.06544696 0.12122591 -0.024970397 0.00045526525 -0.041812986 0.032285795 -0.03734421 0.062740654 -0.014674767 -0.048803575 -0.10570826 -0.049861275 0.045716308 -0.021626089 0.016778708
adapter -0.06646364 -0.17182755 -0.111685276 -0.0044749975 0.02593868 -0.1620979 -0.10581916 -0.1505034 -0.014448276 0.1374152 0.05049118 0.003901258 0.023514433 -0.08616667 -0.066655725 0.08104214 -0.04624778 -0.061921142 -0.0042236075 -0.0664797 0.034498714 0.054091416 0.100909576 0.04582062 -0.0045323796 -0.0227376 -0.025632497 -0.045773074 -0.06672534 -0.023563726 0.023897294 -0.041498583 0.05077913 -0.018035643 -0.010251944 0.08946254 -0.05517746 0.050650388 -0.11403701 0.0039448477 -0.07131415 0.058315523 0.042904027 0.045353517 -0.043245457 -0.057595592 -0.05426173 -0.0043368596 -0.059658676 0.011373012
cafe -0.04182553 -0.02371343 0.16004479 0.20622787 -0.026578715 -0.3780284 0.15393138 0.2874779 -0.19020097 0.15614472 -0.27335912 -0.0375569 0.10589551 -0.10445755 -0.010162282 0.16244777 -0.00031547793 -0.101961814 -0.13412535 0.032885186 0.087755844 -0.27769855 -0.2007368 0.008516498 0.13818468 -0.16164352 0.12913439 0.07650437 -0.16778427 -0.07270292 -0.11593374 -0.23714307 0.015130056 0.0784043 0.098412655 0.03128182 0.03332504 0.0816872 0.13839693 0.023826495 0.048688397 -0.045900457 0.060107645 -0.2183492 -0.060580533 -0.12660015 -0.09235248 0.082147405 -0.105769865 -0.02035575
pillow -0.023138335 -0.15463233 0.0650354 0.22661987 0.094627656 -0.19944917 0.099135764 0.02361544 0.06288117 0.005534503 -0.044800352 -0.07368574 -0.08129262 0.024552781 -0.079231955 0.08885978 -0.015762003 0.033662613 -0.08493053 -0.1450063 0.10150798 0.024957148 -0.0034040944 0.059690084 -0.0007363778 0.11973137 -0.12143146 -0.12799276 -0.00379174 0.08323365 0.00517202 0.065928936 0.14368756 -0.0034065158 0.061912216 -0.047976118 0.082836084 -0.0015757055 -0.028249646 -0.05392746 0.03206339 0.013116113 0.037809756 -0.011130515 -0.021375857 -0.07694533 -0.05966056 0.06606414 -0.026268175 0.024560537
skiing -0.08068367 -0.0848847 0.09971486 0.058066525 -0.013548461 -0.17424394 0.054529876 0.105603874 0.0023537308 -0.026665086 0.011442735 -0.014623138 0.090478525 0.006522152 0.03690658 0.029773578 0.010258515 0.17395155 -0.043737866 0.07650653 0.005589005 -0.06423467 -0.021321993 -0.0038625393 0.02492157 -0.16124412 0.043168705 -0.037318572 -0.1956354 -0.08541894 0.12571935 0.10690557 -0.07140625 0.011240839 -0.12670234 -0.06645937 0.051112235 -0.07029982 -0.017251752 -0.15177079 0.0031493665 -0.027824549 -0.01643449 -0.114237085 -0.027800053 -0.072167836 -0.097499646 0.10240009 -0.02216265 -0.011294916
palace -0.0352857 -0.06506679 0.22678153 -0.064346954 -0.019436982 -0.04718199 0.27802345 0.14053307 -0.1409849 0.07972629 -0.09427214 0.08866548 0.0507869 -0.116111234 0.07646233 0.118709184 -0.17609046 -0.028366486 -0.030890679 -0.13116889 0.13613896 -0.009095186 0.04601695 0.039193407 -0.05442018 0.006116386 -0.03166352 0.063155286 0.047015846 -0.0885975 -0.030347535 -0.059361644 0.02029167 0.0667763 0.061071873 -0.022951717 0.1956464 0.049972117 0.19936128 0.07801711 0.007952782 -0.16449954 -0.0036962584 0.04116625 -0.035856325 -0.07766325 -0.07311132 0.04712775 -0.074973665 -0.022575574
ferry -0.15745717 -0.053132404 0.16741547 -0.0748365 -0.007320445 -0.24571346 0.056798026 0.23323031 -0.016266026 0.11509161 -0.036950935 0.19247623 0.07799967 -0.025421184 -0.017799996 0.14845689 -0.10822339 0.0360956 -0.05428032 0.11709067 0.07604951 -0.27136254 -0.13515542 0.16288137 0.074913785 -0.09900704 -0.022467759 0.09857685 -0.04347736 -0.13883208 0.10764473 0.0033817817 0.02301007 -0.027524704 -0.08356999 0.13339584 0.057663456 -0.0641076 -0.0071034115 -0.18445155 0.018966315 -0.018847149 0.113484435 -0.0595441 -0.04770926 -0.13653126 -0.11538403 0.09720142 -0.02889239 0.0020087506
passport -0.015926056 -0.06529935 0.045091797 -0.015735775 -0.027556634 -0.030278414 -0.0180922 0.072413705 -0.103124894 -7.170439e-05 -0.11407336 0.044527408 -0.02886408 0.0015303238 -0.01546246 0.12638499 -0.0015915574 0.010479248 -0.00730515 -0.079065576 0.07502165 -2.8400551e-05 -0.06070201 0.06758834 -0.0028676833 -0.093203 -0.038608775 -0.058198337 0.051737797 0.013614908 0.011744635 0.098709635 0.13783953 -0.059704177 -0.032821536 0.12959978 0.05940689 -0.06471712 -0.016914694 -0.011780797 0.011668985 0.020327905 0.04974499 0.0033239338 -0.042875454 -0.07104967 -0.08320914 0.04522457 -0.008932544 -0.0123150265
dock -0.0298044 -0.12108069 0.061550748 0.023044256 0.001045232 -0.33794647 -0.005878653 0.13205674 0.110541284 0.1868431 0.15642118 0.2197927 0.0652404 -0.110130236 -0.07385337 0.24224494 -0.1511864 -0.09123282 -0.032444265 0.0347909 0.11604342 -0.19605017 -0.12617984 0.09767312 -0.010495191 -0.033287995 -0.16072044 0.06466838 -0.08731663 -0.21313885 0.081146866 -0.06024058 0.06305228 -0.04517304 -0.06844913 0.16341671 0.0924198 0.009531186 0.0820336 -0.04765983 -0.14287853 0.044644352 -0.058069017 0.041905083 -0.0562858 -0.1251136 -0.13610584 0.09526434 -0.0893524 -0.08317138
surfing 0.020476384 -0.09303116 0.022677457 0.10438937 0.014010592 -0.10861071 -0.027879544 0.076791756 -0.106539264 0.05558714 -0.006614627 -0.055477016 0.0081434585 0.016158735 0.020610206 -0.043463893 -0.011855748 0.03741914 -0.024176493 0.071561076 0.020313008 -0.13208291 -0.012052318 -0.12357527 -0.042904697 -0.12751305 0.071570344 -0.0148814805 -0.09280221 -0.059043504 0.10793859 -0.036678303 0.09154769 -0.023884026 -0.114537105 -0.037290733 -0.071174964 -0.10592787 -0.09716245 -0.039679207 -0.10908552 0.04078888 -0.078440666 -0.078460686 -0.05382166 -0.07959502 -0.05172835 0.024771295 -0.07258767 -0.046090122
wallet 0.01992842 -0.101683415 -0.0020556808 0.13839363 0.074676625 -0.12735395 -0.065143816 0.022496276 -0.015910352 0.03515373 -0.0059996173 -0.025781557 -0.053299762 -0.009657738 -0.022998966 0.093455486 -0.015227231 -0.13739656 -0.10699079 -0.09963846 0.019335631 -0.02182984 0.021861367 0.03344772 -0.04539755 -0.084629856 -0.017357169 -0.021836985 0.017249601 -0.012141848 -0.023728691 0.031175677 0.11047132 -0.07003081 0.07659041 0.058025967 0.15637687 -0.037305143 -0.06616409 -0.037233904 -0.034302164 0.068343736 0.0150692435 0.016519975 -0.0057976427 -0.117881574 -0.06893558 0.041830298 -0.041335505 0.0380221
boarding 0.0042518955 -0.029142566 0.053238384 -0.017979112 -0.040259916 -0.09224565 0.0171161 0.12847495 -0.030243525 -0.021727266 -0.013032797 0.057822563 0.04511707 -0.020254638 -0.015053906 0.17099778 -0.04377319 0.046515636 -0.014524084 0.04515106 0.047912065 -0.059465036 0.018581277 -0.02328346 0.091368034 0.007899782 -0.03512832 -0.013538691 -0.036077037 -0.000866443 0.02468879 0.001035966 0.04440503 -0.059738915 -0.009404579 0.059596393 0.061881058 -0.019625971 -0.0012098307 -0.053995796 -0.05257602 -0.09846441 -0.06365799 -0.04344235 -0.018316008 -0.08120487 -0.07592549 0.028726121 -0.005254437 -0.028021272
subway -0.045739878 -0.104028575 0.09784363 0.039512046 0.012650532 -0.11467087 0.043518763 0.08901935 -0.091605924 0.019526185 0.031883474 0.0067925393 0.07237792 0.003522408 0.03777183 -0.03606963 -0.12816043 -0.021900535 -0.018591795 -0.07215581 0.2725656 -0.11845124 -0.076469876 0.016255705 0.20880885 -0.10880822 -0.08607583 -0.06034717 -0.10636301 -0.14723592 -0.1197831 -0.1335045 0.03514576 -0.019554058 0.1826595 -0.018635757 0.12154994 -0.03601465 0.13611008 0.0012556389 0.019533776 -0.08541297 0.053998258 -0.10031875 -0.043454688 -0.103092134 -0.08836553 0.108226776 0.010502634 -0.030260963
jungle 0.03336371 -0.09363323 0.15358572 0.12455713 0.0029653376 -0.12473684 0.17831181 0.0029386133 -0.12610202 0.03348878 -0.088328175 0.09085298 0.12603618 0.06015264 0.13941436 0.01534226 -0.15311234 -0.033370294 0.08151874 0.097136 0.11978648 -0.13022666 -0.03050741 -0.14579552 -0.10158832 0.0178699 0.0645207 0.0048383265 0.054861438 -0.019141769 0.06421937 -0.055642184 0.11023932 -0.05492231 -0.13257088 0.019178132 0.08375086 -0.052980762 -0.002373299 -0.026073238 0.018147338 -0.11778213 -0.09506806 0.015795251 -0.053902995 -0.09487946 -0.06807244 0.09792483 -0.011966488 -0.037113704
umbrella 0.040957868 -0.061006963 -0.0048733973 0.046203565 -0.027742561 -0.049847372 -0.0068293526 -0.005465072 -0.04546513 0.023327496 -0.04377658 -0.012547102 0.05899934 -0.0345714 0.07107954 0.09483934 -0.031425666 -0.050980188 0.01230357 -0.051268052 0.027374525 0.024934825 -0.12200332 0.051767953 0.026825089 0.107493915 -0.053685933 -0.09328144 -0.023577785 0.005188355 -0.012557677 -0.011110416 0.046628695 0.031529333 0.023468468 -0.09549163 0.010528596 -0.014353318 -0.045304425 -0.00018942782 -0.0226948 0.027527567 -0.011624139 -0.04602234 -0.03287741 -0.07922074 -0.029661115 -0.043630656 -0.05199992 -0.005536469
charger -0.13124917 -0.21293625 -0.021374917 0.094139926 0.04845453 -0.18564104 -0.044368625 -0.05227317 -0.02187115 0.10371282 0.005135348 0.03264511 0.02526792 -0.04610411 -0.09053098 0.13528192 -0.017404955 -0.07197448 -0.023699332 -0.03066372 0.04202708 0.041974083 0.102789864 0.05453553 -0.06170491 -0.05000916 -0.084058814 -0.016669346 -0.037419483 -0.09801547 0.005239432 0.041380517 -0.01892481 0.0581472 -0.04371377 0.06830915 0.018863995 0.026163518 -0.021661824 -0.11757546 -0.12792756 0.046853267 0.12901625 0.027495012 -0.05844129 -0.07704136 -0.05860191 0.0028415509 -0.04514514 0.0068000993
backpack -0.007861808 -0.07785448 0.021238403 0.10842216 0.04630552 -0.14899738 0.0034415566 -0.0042003333 -0.0074027525 0.04661279 0.022410296 -0.028039908 -0.013848995 -0.019286253 0.003370338 0.101238124 -0.10018305 -0.0006020482 0.032256525 -0.005901055 0.079793505 -0.05283935 -0.0027471564 0.025038134 -0.03536784 0.026819864 -0.02015043 -0.059075505 -0.07177528 0.00726288 -0.05272713 0.09614892 0.108848736 -0.011762832 -0.030169055 0.006353238 0.008488874 0.03211367 -0.0018346475 -0.12625259 -0.03272512 0.015978424 -0.023794046 -0.05688222 -0.013681472 -0.07448065 -0.032288443 0.029986914 -0.038380932 0.020937564
hostel -0.10375464 -0.058916193 0.09037935 -0.021207714 -0.048471402 -0.17258762 0.08556694 0.24189554 -0.1942641 0.119701006 -0.2847544 0.057965416 0.023222556 0.058380704 0.013747609 0.15401635 -0.005605065 0.03701028 -0.013989056 0.012877497 0.07160243 -0.08935335 -0.014385707 -0.039872386 0.07029664 -0.097373344 -0.035143156 0.108583085 -0.18426923 -0.05990346 -0.06373493 -0.1471927 0.026790315 -0.07106621 -0.06511288 -0.005836309 0.024137119 -0.00243285 0.118670754 -0.013339102 -0.019297529 0.039637815 -0.100368634 -0.107345276 -0.016096532 -0.1011362 -0.07969379 0.08340342 -0.08751529 -0.027138952
mosque -0.09954613 -0.103164814 0.19361915 -0.13685362 -0.10226373 -0.0118890675 0.13028517 0.24324071 -0.11554276 0.03517882 -0.09820177 0.19721022 0.038151663 0.0073744925 -0.05802974 0.07388892 -0.13602379 -0.069911405 -0.045850176 -0.18191306 0.24281614 -0.042386424 -0.063507356 -0.10465997 -0.040420473 0.095337264 -0.12240534 -0.118427 -0.08741269 -0.01682101 -0.11209911 -0.08106113 0.059772175 -0.012414195 -0.10396878 0.0049444526 -0.07870167 0.23209469 0.21875706 0.11522391 -0.07685458 -0.057278384 0.038410928 -0.0021571615 -0.04959426 -0.06266251 -0.11825112 0.09035566 -0.06999423 0.0054763258
motel 0.0066912547 -0.0030182824 0.14645755 0.0971731 0.031644106 -0.3147298 -0.02481815 0.34533635 0.05320607 -0.1022713 0.055997223 0.027419895 0.09936445 0.047499746 -0.13795933 0.21820328 -0.24269065 -0.053440508 -0.093895555 0.12894474 0.09705452 -0.088577114 -0.05990637 -0.12712802 0.2622283 -0.21711338 -0.13497847 0.052737504 0.090572335 -0.11565044 -0.006498661 -0.11187267 -0.023672879 -0.09319312 -0.05500679 0.07502899 -0.017721534 -0.065759614 0.10102947 -0.016530281 0.12714367 0.017796502 -0.08113874 -0.14134789 -0.023499303 -0.09617956 -0.08549246 0.069797084 -0.094796106 -0.00855634
sightseeing -0.0443614 -0.04260188 0.049479883 0.014632957 -0.028610328 -0.08272053 0.062065687 0.117281094 -0.014553599 0.056191176 -0.09472232 -0.0045975223 0.04554005 -0.0256354 0.029946283 -0.010454766 -0.025335565 0.02987343 -0.04615375 -0.0071132923 0.03722102 -0.061577152 0.0049778647 -0.0098146275 0.039041813 -0.05712686 -0.025040088 0.053282704 -0.06906277 -0.05155406 0.022938414 0.041770935 0.013889697 0.013598459 -0.0143383695 0.032737773 0.0353611 -0.064510465 0.04637944 -0.040222157 0.015599081 -0.079194255 0.0036268898 -0.050160404 -0.012574129 -0.032700323 -0.023336431 0.03646063 -0.027323341 0.0012122194
suitcase 0.0003853185 -0.06341986 0.08337958 0.10409334 0.056170058 -0.12871733 0.040065605 0.05885099 -0.015002702 0.054644566 -0.019613637 -0.00593082 -0.03177458 -0.01297194 0.021877013 0.09041772 -0.033579748 -0.04249827 0.016294904 -0.044961113 0.14669783 -0.04159914 -0.03402572 0.08866887 0.0572117 -0.004798513 -0.056094 -0.08951451 -0.036249578 -0.019124804 -0.0594337 0.062588595 0.041126445 -0.09311404 0.019066885 0.10649641 0.07983501 -0.031799518 0.037219565 -0.050344054 0.059927642 -0.000696913 0.03935226 -0.014389867 -0.03377539 -0.05260878 -0.035894167 0.018557852 -0.035495374 0.022892414
london -0.114370875 -0.17914012 0.023967749 -0.0539199 0.012986633 -0.15038519 0.13009402 0.0963245 -0.14941119 -0.032784328 -0.16421804 0.11501501 0.015911799 -0.11388125 -0.10700556 0.052101012 0.17388394 0.05434506 -0.11606055 0.11029979 0.16954683 -0.004878235 0.008452149 -0.023028662 0.017145393 -0.0693179 0.17567556 -0.23583627 0.13409165 -0.16357131 -0.045636825 -0.1417705 -0.13573301 0.05719594 0.14344798 0.020799026 -0.055202316 -0.03577533 0.055212755 -0.058273055 -0.014392904 -0.09858247 0.053903233 -0.042195857 -0.050164767 -0.036806945 0.013903058 0.014814677 -0.101026855 -0.11297822
sunscreen -0.06932607 -0.1532961 0.0064628096 0.12363047 0.027754817 -0.096016094 -0.04361123 0.023563676 0.07586813 -0.08428257 -0.047734223 -0.040880352 -0.05109522 0.113372386 -0.012456763 0.006269329 0.024606848 -0.027859796 0.015183223 -0.09830533 -0.00059539266 -0.041572724 -0.035641443 0.041709565 0.025556592 0.0073835924 0.019228451 -0.00146699 -0.024983054 -0.09428713 0.073325776 0.114213675 0.071776696 0.013322657 -0.013513772 -0.006814054 -0.07683027 0.009746237 0.07212571 -0.060704023 -0.18063761 -0.008848863 -0.036139138 0.013434859 -0.015307739 -0.050980996 -0.057707027 0.048153024 -0.023427134 0.015859976
kayaking -0.08529761 -0.06304722 0.045811098 0.057488427 0.008429186 -0.1377786 0.02995446 0.10742049 0.0096074175 -0.04075291 -0.03890826 -0.026062028 0.04760872 -0.0039577573 -0.00034723006 0.024468008 -0.02395361 0.08864954 -0.021933366 0.0775499 0.0071601253 -0.13380694 -0.048056584 -0.044731315 -0.03460997 -0.019343413 0.050546397 0.019476412 -0.105986014 -0.03217451 0.12138957 0.07216738 0.034818918 -9.508724e-05 -0.14053321 0.011358709 -0.012049908 -0.07542497 -0.0069718384 -0.107273325 -0.075453155 -0.025304012 -0.025976395 -0.0546911 -0.023413144 -0.063259736 -0.030313425 0.042488918 -0.027034305 -0.0014981878
airbnb -0.23670259 -0.14365792 0.033902455 0.19385794 0.10360246 -0.15926087 -0.13250051 0.23450115 0.0051896325 0.026900588 -0.31570134 -0.20241895 0.025238723 -0.11147988 0.04882433 0.07487621 -0.036843073 -0.04052509 -0.04324068 0.059801515 -0.0045696422 -0.094180815 0.09758835 0.11592585 0.005017552 -0.063989736 -0.05081298 0.18363926 -0.032198858 -0.1070799 0.097465225 -0.19343159 0.07683065 -0.092473224 -0.07308095 0.16113248 0.0064758956 -0.063770235 0.086048804 -0.04413241 -0.03969119 0.09992593 0.11215724 -0.14416806 -0.036308486 -0.055440914 -0.03205373 0.067717865 -0.0896587 0.0060899328
japan -0.12488312 -0.35411465 -0.00044192746 0.021108149 0.03748431 -0.1620203 0.079405874 -0.017596304 -0.23795336 -0.032314666 -0.12685242 0.06097939 0.012365133 0.020911664 -0.043521244 -0.08716694 -0.10617037 -0.022681534 0.052550152 -0.021039315 0.14689764 0.014399417 0.026593294 -0.08279678 -0.16630086 -0.17362902 0.18654151 -0.1238991 0.092373036 -0.18021534 0.011550744 0.052110486 -0.0644715 -0.038060665 0.093708985 -0.22592685 0.04094056 -0.13269219 -0.057517756 -0.26299584 -0.08062735 -0.020306151 0.039325707 -0.18500954 -0.025350213 -0.033627115 -0.015346585 0.028047932 -0.1434206 -0.09735009
guesthouse -0.059290238 0.0013187226 0.073820725 -0.013471162 0.017173847 -0.09394292 0.060755916 0.12379537 -0.02505003 0.052530866 -0.14278448 -0.015833717 0.05586781 -0.012115481 0.030574692 0.10291068 -0.04392252 -0.020031085 -0.022976842 0.008437341 0.0067942324 -0.068099655 -0.03467687 0.00048179532 0.005780073 -0.03233785 -0.0450979 0.065237544 -0.041610602 -0.04560956 -0.021503856 -0.056649063 0.042616967 -0.027845362 -0.069645144 0.039631058 0.035606522 0.044124264 0.06889622 -0.015890071 -0.0010396118 0.014091093 -0.010294679 -0.03499828 -0.011517139 -0.037966166 -0.042657487 0.034160264 -0.033418946 -0.016997555
germany -0.049107954 -0.18628375 0.03388707 -0.025938503 0.03687049 -0.09766236 0.04505606 0.023658749 -0.16773364 -0.027747735 -0.14742053 0.09034749 0.0012609698 -0.04498779 -0.055939823 -0.05301922 -0.04273125 -0.053128935 -0.0107204225 0.036587413 0.10471745 0.109418854 0.032488033 0.13746536 -0.035305828 -0.1735628 0.148467 -0.15720987 -0.022696307 -0.103624664 -0.01719167 0.037592065 -0.13226837 0.051041253 0.025373964 -0.057319507 0.0010170843 -0.09783174 -0.040825322 -0.08811681 0.0325648 0.00917547 0.06788203 -0.0764776 -0.02424293 -0.030903049 -0.061432622 0.03870903 -0.08653017 -0.037802737
guidebook 0.016577153 -0.0022831634 -0.0038237348 0.010227995 -0.06689515 -0.012902224 0.0022658813 0.050810173 -0.04248598 -0.014673078 -0.07081035 -0.09292302 0.0653761 -0.09725356 -0.021232182 0.0063218437 0.002256351 -0.025517233 0.03118208 -0.009615542 -0.0088431435 -0.08257316 -0.026166119 0.007448008 -0.004859642 -0.033789992 0.009524372 0.029694106 -0.04849369 -0.017109675 -0.01961194 0.056256756 0.062068243 0.0325847 -0.07698027 -0.0056525534 -0.030372912 -0.04040718 0.055674534 -0.07062613 0.0387436 0.020699568 -0.06291235 0.028839882 -0.020078218 -0.057806827 -0.03576935 0.021442166 -0.049082335 -0.008912654
england -0.052393466 -0.18505219 0.07930817 -0.071100816 -0.013638544 -0.11950599 0.09266636 0.138087 -0.13591932 -0.08401787 -0.08292572 0.15100712 0.007539182 -0.08026454 -0.15276751 -0.010120466 0.17279981 0.01613403 -0.014290522 0.14111519 0.033440184 0.09854787 0.010490875 -0.022047585 -0.097479485 -0.09050932 0.20426314 -0.14147 0.11506666 -0.101447634 0.03324292 -0.040223308 -0.0954334 0.044715084 0.034724094 -0.035180554 0.0042251684 0.012880604 -0.03671591 -0.034672733 -0.05348752 -0.039725896 0.079963 -0.041308608 -0.047349438 -0.06118901 -0.048626106 0.030237954 -0.08219947 -0.04427112
paris -0.09821064 -0.23595366 0.14040728 0.013616141 0.12586038 -0.1830522 0.1681626 0.11391097 -0.15330276 -0.008344144 -0.22643654 -0.0065588616 -0.037085887 -0.13741171 -0.045730878 -0.02069572 -0.072509035 0.013049126 -0.05863914 -0.090234175 0.29257557 0.064367615 -0.0965938 0.16369379 -0.013790971 -0.20655918 0.22623715 -0.21523005 0.15536086 -0.21841224 -0.023296446 -0.11621213 -0.084931575 0.044032134 0.17953512 -0.050546333 -0.05394233 -0.11287915 0.013667489 -0.06490399 0.0148925735 -0.20115294 0.05730065 -0.0055763926 -0.09942551 -0.09931326 -0.099302664 0.044287294 -0.06417681 -0.07682559
france -0.08322159 -0.22518371 0.078948826 -0.03135379 0.033689987 -0.10250951 0.12985726 0.0795105 -0.14713958 0.0013844885 -0.18823503 0.104971744 -0.0061930725 -0.046883006 -0.068056576 -0.05608728 -0.005839939 -0.00569165 -0.0442551 0.029766327 0.12464928 0.10635461 -0.018319849 0.16383696 -0.06828491 -0.24590294 0.2608133 -0.14741832 0.060849726 -0.16472 0.033772744 -0.06323782 -0.067842096 0.062447842 0.0517223 -0.059213188 -0.027932225 -0.105519116 -0.07780615 -0.12802292 -0.0001463674 -0.061997604 0.110185586 -0.037932996 -0.054569263 -0.046889532 -0.044032592 0.061321165 -0.061232816 -0.032611262
italy -0.08380545 -0.3020938 0.050263472 -0.041369595 0.015252084 -0.15950696 0.19305305 0.12645853 -0.14651015 -0.034716584 -0.24383858 0.035333496 0.033646543 -0.025754068 0.007015772 -0.097722426 -0.111404985 -0.024647238 -0.08682537 -0.010467328 0.099836074 0.18958859 0.02995972 0.20001006 -0.075141884 -0.3125677 0.30227053 -0.18990205 0.07214636 -0.1331886 -0.0012141448 -0.08469193 -0.082082346 0.13777283 0.00062671304 -0.07019408 0.057098545 -0.13475168 -0.036897384 -0.00934673 0.028464187 0.007880056 0.06102251 -0.045697004 -0.04616712 -0.07330431 -0.046113137 0.035979114 -0.12667474 -0.124164015
spain -0.10046454 -0.3156675 0.06706149 -0.051359236 0.01694056 -0.15067925 0.13852772 0.14275113 -0.22396864 -0.0016627023 -0.2744511 0.12628998 0.031527404 -0.02268341 -0.033860248 -0.12878147 -0.04705827 0.03804823 -0.086370006 0.009382192 0.10787839 0.15742113 -0.010945205 0.17661099 -0.14565857 -0.36405262 0.31360278 -0.12183769 0.053288966 -0.13309604 0.1029714 -0.0936696 -0.043562643 0.04481665 -0.08388781 -0.05158287 -0.001449167 -0.1525525 -0.12387003 0.116967976 -0.012690633 0.057925627 -0.06268239 0.0298314 -0.06709147 -0.07641036 -0.06470403 0.0417818 -0.12666543 -0.07629332
rome -0.16916361 -0.37753484 0.12592983 -0.05596977 0.09146443 -0.13102297 0.27245063 0.12612993 -0.3070374 -0.13653032 -0.20173857 0.11842378 0.04598076 -0.13081893 -0.1694099 -0.14788464 -0.22703001 0.06336615 -0.12677294 0.020677324 0.12867105 0.25890052 0.1652726 0.20322523 -0.103490666 -0.33642775 0.25738934 -0.14798227 0.1018497 -0.17407005 -0.18357532 -0.19544649 -0.19349957 0.21866214 0.013632282 -0.040012162 0.06668244 -0.022637567 0.107676685 -0.11050892 0.08032778 -0.12621407 0.06577614 -0.028348088 -0.06466304 -0.1006175 -0.08568415 0.0548577 -0.13146056 -0.100077376
berlin -0.11971688 -0.22224258 0.07831309 -0.036798246 0.08706468 -0.10685485 0.091252044 0.06266659 -0.18863769 0.011308134 -0.20190926 0.016875824 0.06908139 -0.110707 -0.012336361 -0.032773674 -0.10938668 0.035622712 -0.06058239 0.004020545 0.27889314 0.003186258 -0.023865296 0.10865974 0.0067926594 -0.16407084 0.1678734 -0.1857904 0.013772306 -0.11239477 -0.0520142 -0.10175586 -0.15060864 0.1764658 0.1175169 -0.025656382 -0.019893726 -0.099332295 0.005413824 -0.10199511 0.022098314 -0.006864813 0.16425419 -0.06622271 -0.025529543 -0.030250747 -0.062146902 0.084928624 -0.060013253 -0.09403404
greece -0.10271924 -0.2555055 0.05749966 0.0065428675 0.006522 -0.07620635 0.12044453 0.04518315 -0.23147695 -0.060649026 -0.21638353 0.09296589 -0.022215007 0.011552125 -0.028176142 -0.1230243 -0.054689754 -0.024240134 -0.05985984 0.08701628 0.11187732 0.099742495 -0.04072297 0.12657188 -0.10803163 -0.16950165 0.181402 -0.16233698 0.05275883 -0.112433545 -0.012076922 -0.058670726 -0.07752364 0.0728175 -0.017533835 -0.0526551 0.06788599 -0.085845314 -0.029337538 -0.1078001 0.015699267 -0.025072714 0.020600872 -0.012303528 -0.039592654 -0.057082523 -0.022691574 0.0042589265 -0.105542004 -0.06343991
tokyo -0.20524156 -0.31688046 0.052741177 0.04606153 0.09116787 -0.18130107 0.17355837 0.012519281 -0.2922614 0.025373273 -0.16042712 0.011414751 0.014372759 -0.081333555 0.019226465 -0.10467236 -0.16453697 0.09433169 -0.017331846 0.047241658 0.2490969 -0.10008323 -0.0069426 -0.10834297 -0.07289124 -0.21627754 0.11323081 -0.114820175 0.14848709 -0.23257972 0.005312085 -0.05348402 -0.15482052 -0.021496845 0.19881159 -0.2029016 0.01041166 -0.09646581 0.06203793 -0.21952717 -0.042312436 -0.1567957 0.02828044 -0.21525617 -0.10732378 -0.09063603 -0.040423937 0.059769437 -0.10530532 -0.08344212
amsterdam -0.0821203 -0.10240417 0.037494756 -0.010000474 0.027435016 -0.10411613 0.06350169 0.050383378 -0.1139158 -0.002747247 -0.13720468 -0.00019635446 -0.001349912 -0.037081122 -0.04845844 -0.032572422 -0.01311312 -0.0009512119 -0.05080173 0.02517026 0.11852208 0.010226252 -0.030205868 0.05990285 2.6457012e-05 -0.14623718 0.16871107 -0.09104318 0.00888237 -0.11109892 -0.011686114 -0.09330168 -0.06947 0.09694788 0.0340509 -0.030240754 -0.0059878393 -0.06605985 -0.03149144 2.437178e-05 -0.018868135 -0.043846406 0.034232657 -0.05559886 -0.032569967 -0.044879526 -0.012647996 0.015562248 -0.07750359 -0.04591949
barcelona -0.12498593 -0.16305587 0.03197067 -0.02545944 0.029048435 -0.10688404 0.046582147 0.04918562 -0.12236728 0.06533248 -0.11882965 0.013987804 0.0033123707 -0.03146937 0.01601259 -0.071392775 -0.023102697 0.08318155 -0.056708626 -0.019485664 0.08421731 0.100885354 0.032904577 0.08632771 -0.049700923 -0.1625484 0.1725977 -0.07613909 -0.010084249 -0.049348358 -0.013241094 -0.10856268 -0.023428816 0.05058495 -0.00029530982 -0.049441777 0.019451657 -0.08288867 0.014052454 0.066497415 -0.07180979 -0.020475307 0.023029586 -0.017177973 -0.042018894 -0.044252973 -0.025492337 0.023808468 -0.055502214 -0.042427633
netherlands -0.053393867 -0.10514996 0.010943641 -0.0024437716 -0.013675674 -0.0606513 0.047031444 -0.008062852 -0.09216624 -0.00047066808 -0.12654506 0.02680569 -0.019538043 0.0015326642 -0.041025124 -0.040334947 -0.031806167 -0.01006969 0.015743086 0.05070811 0.053410985 0.03839086 -0.0020662786 0.040264785 -0.021082947 -0.11191453 0.108917214 -0.06554238 0.019526709 -0.040072873 0.0056006387 -0.02094816 -0.04678187 0.01794087 0.022410993 -0.04880087 -0.0036596225 -0.06875578 -0.02857232 -0.00032204986 -0.031227086 -0.0072200904 0.021520609 -0.039371043 -0.035346378 -0.027103484 -0.022455877 0.020882893 -0.05048976 -0.023152884
portugal -0.12517102 -0.18684076 0.04223307 -0.031568892 0.033209007 -0.09788029 0.07880201 0.046123806 -0.13033159 0.031445794 -0.16402161 0.07939712 -0.0012537816 -0.025666514 -0.0035861116 -0.05485843 -0.032651626 0.03912802 -0.0642758 0.028592762 0.062165145 0.12401734 -0.04704984 0.10263583 -0.05693383 -0.18613215 0.21298963 -0.055033505 0.01751586 -0.047453932 0.06411994 -0.08806058 -0.03468647 0.026712175 -0.062195156 -0.028075177 0.006924436 -0.08280232 -0.05403146 0.014312031 -0.07150264 0.032652795 0.018741574 -0.010482254 -0.035130784 -0.015568663 -0.022356426 0.020995818 -0.08712167 -0.042778544
athens -0.17508624 -0.16743603 0.03314608 -0.03073589 0.09372451 -0.11179656 0.10239351 0.1578937 -0.18320493 -0.07911732 -0.18242283 0.1015934 0.099741764 -0.046272334 -0.09585994 -0.08280406 -0.14266667 0.07554293 -0.0356326 0.10630616 0.14044017 0.10630379 -0.029989827 -0.0072178068 -0.07421737 -0.06381514 0.09228834 -0.14697886 0.024544885 -0.09504818 -0.067334585 -0.091526456 -0.12574144 0.11296137 0.054488696 -0.0075296736 0.003093219 -0.08092333 0.039629776 -0.100953475 0.05211383 -0.05831344 0.07811977 -0.024030926 -0.051107377 -0.058346834 -0.04584701 0.02971753 -0.124204196 -0.017900333
vienna -0.13342777 -0.21859398 0.07741521 -0.038563468 0.0838749 -0.12701695 0.12552688 0.069813006 -0.18885756 -0.004646629 -0.14941728 -0.032824337 0.027221847 -0.11959978 -0.04206518 -0.08009792 -0.07924026 -0.011652881 -0.037595 -0.0064074667 0.1471053 0.07235479 -0.02965203 0.15706795 -0.0473561 -0.20331645 0.16910167 -0.15949485 -0.03455331 -0.06902247 -0.07291029 -0.07848924 -0.1803301 0.22927523 0.11784454 -0.022456283 0.025713727 -0.07474547 -0.00039725268 -0.041200604 0.090260975 -0.07821122 0.086007856 -0.09179543 -0.06700807 -0.084859215 -0.010237823 0.031201167 -0.07779308 -0.082977556
austria -0.07632106 -0.23941241 0.054525755 -0.06238131 0.031781197 -0.08187747 0.062445454 0.04232496 -0.15704061 -0.0062870933 -0.16242406 0.032235198 -0.03156977 -0.033014093 -0.028005188 -0.055988263 -0.048784375 -0.0011147063 -0.03608071 0.008717794 0.10939796 0.09833577 -0.0031856894 0.12997714 -0.049965613 -0.17612146 0.16586412 -0.099418 0.004351334 -0.10638001 0.05476835 0.017913824 -0.12814255 0.16895823 0.04058861 -0.071152896 0.04890303 -0.10366847 -0.06666933 -0.09694439 0.033288967 0.043114148 0.08254511 -0.06535418 -0.02518357 -0.019338552 -0.029371332 0.023163226 -0.1044957 -0.031872503
lisbon -0.19322053 -0.28360713 0.07072934 -0.0747621 0.05680653 -0.13189086 0.157526 0.17228954 -0.17647742 0.041378506 -0.23562573 0.028277254 0.0642383 -0.11872708 -0.02953957 -0.06582376 -0.120930254 0.050628234 -0.15270169 0.09345405 0.18820783 0.12302679 -0.007568157 0.21312912 -0.092541285 -0.24281824 0.19323026 -0.08572503 0.004256712 -0.090196185 0.044020336 -0.17772692 -0.08187917 0.07916349 0.008490316 -0.004123655 -0.044530816 -0.13212459 0.06862303 0.021048367 -0.086853325 -0.0487131 0.0076442175 -0.10605216 -0.042125326 -0.07134696 -0.06147305 0.014799351 -0.10686487 -0.040477782
